-1.4754154682159424
0.17185218632221222
-0.38476452231407166
-0.29268211126327515
-0.6381791234016418
0.6224197149276733
-0.31405630707740784
0.04131031036376953
0.03828272596001625
-0.02613060176372528
-0.7920807003974915
-0.2501935064792633
-0.13679391145706177
0.4825882911682129
-0.2389741688966751
6.95305871963501
7.383899211883545
6.835701942443848
0.4521096348762512
1.350498080253601
0.03954613208770752
-2.6391305923461914
-6.281279563903809
-5.036094665527344
-0.33750051259994507
-0.5179685354232788
-0.7544947862625122
0.2445237636566162
3.1673498153686523
2.0005669593811035
-0.043880678713321686
0.09432192891836166
-0.016529370099306107
-0.3363766372203827
-0.2913174033164978
0.07552848011255264
-1.8255603313446045
-0.36142024397850037
-4.059221267700195
2.1686716079711914
-3.0594594478607178
-0.09142524003982544
-0.21809187531471252
-0.33484798669815063
-0.12358976155519485
0.06422413885593414
-0.423053503036499
-0.12404724955558777
-0.3936028480529785
-0.06598183512687683
-0.2051144242286682
-0.21495221555233002
0.08037921786308289
0.01259833574295044
0.21371202170848846
0.07408231496810913
5.58456563949585
0.31014448404312134
1.490955114364624
0.18979451060295105
0.15055407583713531
0.005986660718917847
-0.46269121766090393
-0.5444753766059875
0.04278416559100151
-0.04337674379348755
-0.4454898238182068
-0.12910358607769012
-7.23236083984375
2.871565818786621
-0.32406583428382874
-0.0029668996576219797
-0.33219560980796814
-0.2812111973762512
3.173074245452881
-0.4730892777442932
1.1380935907363892
-0.23464131355285645
-0.27208447456359863
-0.3388961851596832
-3.0796611309051514
-0.4731399416923523
2.0127148628234863
-2.5942721366882324
-0.018429279327392578
0.13380849361419678
-0.14732924103736877
-0.2873958945274353
-0.3453555107116699
-0.2832528352737427
0.3387681245803833
-0.2573965787887573
-0.5607388019561768
-0.32618963718414307
-0.6077550053596497
-0.6180471777915955
-0.16694247722625732
-0.31987786293029785
0.5185863375663757
0.08020634949207306
-0.7493042945861816
0.9320782423019409
0.016344042494893074
0.22532665729522705
-5.69957971572876
0.08851653337478638
2.7968392372131348
-1.699723720550537
-0.4246334135532379
-0.19266507029533386
2.3411755561828613
0.07365994155406952
-3.389793872833252
0.3807232081890106
-0.141616553068161
0.23811018466949463
-0.022808508947491646
0.1390705704689026
-0.4269321858882904
-0.11405336856842041
-0.40067338943481445
-0.024271227419376373
-1.4698907136917114
-0.5619460344314575
-1.9972724914550781
-0.1605718433856964
0.24830031394958496
0.8951081037521362
-0.18120792508125305
1.0748028755187988
-0.6941785216331482
-0.10725424438714981
0.6506855487823486
