0.38565123081207275
-0.0007929205894470215
-0.024800270795822144
-0.022346943616867065
-0.0534326434135437
0.02055823802947998
-0.546670138835907
-0.14252473413944244
-0.34155845642089844
-0.1516641527414322
0.27529656887054443
0.16455385088920593
0.3478923439979553
0.32745808362960815
-0.10038602352142334
0.23027002811431885
0.27594465017318726
-0.0986606776714325
0.30775728821754456
-0.1350625455379486
0.21160456538200378
0.17644165456295013
-0.4131787419319153
0.07431238889694214
-0.40134674310684204
-0.036708585917949677
-0.39680972695350647
0.387588769197464
0.3275785744190216
0.18806345760822296
-0.00955169927328825
0.19335003197193146
0.17519406974315643
-0.3535875976085663
-0.5274428725242615
-0.20202992856502533
-0.3729725182056427
0.2837522625923157
0.1358891725540161
-0.1552937924861908
0.21747271716594696
0.3227570950984955
-0.33754417300224304
0.3675939440727234
-0.20916716754436493
-0.05841072276234627
0.3852880597114563
-0.06718966364860535
0.146531343460083
0.6163924336433411
-0.11038193106651306
-0.10313211381435394
0.48211079835891724
0.21379777789115906
0.09747952222824097
0.18160372972488403
0.37000662088394165
-0.5770096778869629
-0.0009850695496425033
0.1695776879787445
0.11297070980072021
0.3451559245586395
-0.3134348392486572
-0.13920478522777557
0.1666795015335083
-0.19211499392986298
-0.23117993772029877
-0.04455307126045227
-0.08653581142425537
0.1404227912425995
-0.132952019572258
-0.09644760191440582
-0.18736879527568817
-0.2655651569366455
0.15422481298446655
-0.22557179629802704
-0.272373229265213
-0.24145060777664185
-0.5290489196777344
-0.40936708450317383
-0.4480777680873871
-0.3340485095977783
-0.38942328095436096
-0.16441470384597778
-0.2067364603281021
-0.2708978056907654
-0.09014295786619186
-0.05004502832889557
-0.4458860456943512
-0.4760024845600128
-0.03541990742087364
-0.5437338948249817
-0.3589390218257904
0.19697818160057068
-0.5485878586769104
0.1219252422451973
-0.3011159598827362
0.18686801195144653
0.04657396674156189
0.36399632692337036
-0.3787180185317993
0.19264543056488037
-0.20391225814819336
-0.0021410584449768066
-0.27802151441574097
0.03203004598617554
0.20314055681228638
-0.14087244868278503
0.35587573051452637
-0.11573871970176697
-0.07510380446910858
0.23195618391036987
-0.07377126812934875
0.3513273000717163
