0.07573533803224564
-0.17130568623542786
0.0005777173209935427
0.7640367150306702
0.20846208930015564
0.8635391592979431
0.07610109448432922
-0.27744659781455994
-0.09240761399269104
7.864969730377197
7.3873491287231445
3.2506697177886963
0.026821918785572052
0.0672994926571846
-0.10271182656288147
-0.3267745077610016
-0.46722686290740967
-0.5925953388214111
0.18660365045070648
-0.1818881630897522
0.24386397004127502
-0.4963201880455017
-0.3741755485534668
-0.5057191848754883
0.4862460196018219
0.12163890898227692
-0.5070836544036865
6.915173530578613
7.080703258514404
7.172410488128662
-0.23611187934875488
-0.05967641621828079
4.658859779738123e-06
-0.2721399962902069
-0.313635915517807
-0.1838555932044983
0.16777963936328888
-0.1690840870141983
0.16546273231506348
-0.3469572961330414
-0.47506457567214966
0.2199689894914627
0.16036611795425415
0.34472140669822693
-0.023334233090281487
0.006678930018097162
0.7470272183418274
-0.6021801829338074
-0.2862105667591095
0.496221661567688
-0.08014543354511261
0.057193174958229065
0.4189600646495819
-0.43698355555534363
0.07637698948383331
2.9133241176605225
-0.06575845181941986
-0.2734253704547882
5.65543794631958
-0.028920602053403854
-0.7337881326675415
-0.22065867483615875
-0.010546237230300903
-0.04244273900985718
2.7489781379699707
-0.3129345774650574
-0.21286191046237946
0.0125920744612813
-0.18592479825019836
-0.09748634696006775
-0.45080381631851196
-0.1625974327325821
-0.22767981886863708
-0.3960019052028656
-0.5460309982299805
1.0601599216461182
3.4257564544677734
0.5630767345428467
0.016833193600177765
-0.13388052582740784
-0.13623817265033722
2.5359582901000977
0.32047027349472046
-0.12810947000980377
-0.1353493332862854
0.1098739504814148
0.09191060066223145
-0.3869672417640686
-0.33997195959091187
-0.16218936443328857
0.26943498849868774
-0.15859666466712952
-0.15638095140457153
-0.3671121895313263
-0.07659435272216797
0.16100645065307617
-0.07779528200626373
-0.5729228854179382
-0.6209179162979126
0.14304298162460327
-0.6785239577293396
0.033288031816482544
0.33827945590019226
-0.35097968578338623
-0.2526189088821411
-0.5627766251564026
0.5429805517196655
0.1253129243850708
-0.2897140681743622
-1.4587020874023438
-0.2425430417060852
-0.2934214174747467
-0.045769695192575455
-0.70269775390625
