-0.5318005681037903
-0.03330710902810097
0.4099135100841522
3.4863643646240234
-2.102308988571167
1.1661226749420166
-0.29793059825897217
0.4291757643222809
0.3177759647369385
7.849578857421875
0.2824208736419678
8.732837677001953
0.17751090228557587
0.20047838985919952
0.14656536281108856
-0.5276868343353271
-0.09991113841533661
-0.15549024939537048
-0.24544115364551544
0.48399126529693604
0.16484768688678741
0.4741135835647583
9.737604141235352
-0.6579392552375793
-0.0929446890950203
0.05644461512565613
-0.015301833860576153
-0.024175647646188736
-0.5502626895904541
-0.08643307536840439
0.5115953683853149
0.3983345031738281
-1.7713981866836548
-3.424896240234375
-3.479491949081421
-5.255279541015625
-0.5911577343940735
-0.910022497177124
0.1759997457265854
-0.7132711410522461
0.022140640765428543
-0.2583732306957245
0.766606867313385
5.063810348510742
0.03808110952377319
5.261552333831787
-0.01525792945176363
-0.06801790744066238
-0.2907869219779968
-3.932832717895508
0.23645025491714478
-3.355290174484253
0.04746904969215393
1.1212043762207031
-0.2687760889530182
-0.07194983214139938
-0.006549358367919922
0.02006126567721367
-0.1725223958492279
-0.9868811964988708
-0.874525249004364
-1.0500237941741943
-0.3255104720592499
0.2903575599193573
0.11521244049072266
-0.7994922995567322
-0.12425226718187332
-0.0810679942369461
-0.25654998421669006
-0.7007575631141663
-0.12896685302257538
-0.04204762354493141
-0.07192916423082352
-6.692443370819092
2.7361786365509033
0.48307251930236816
-1.3520557880401611
-0.21497023105621338
0.09276831895112991
-0.05371910706162453
-1.0316096544265747
0.02490030974149704
-0.44127821922302246
0.14161626994609833
0.69449782371521
1.7256337404251099
0.5287416577339172
0.08314917981624603
0.11886771023273468
0.3244794011116028
0.22904357314109802
-3.447054147720337
2.756132125854492
-0.30201441049575806
0.1332220435142517
-0.11424653977155685
-0.2126881331205368
-0.5605728030204773
-0.37359410524368286
-0.42780667543411255
-0.7057785987854004
-0.34450939297676086
0.3540308177471161
0.0021040376741439104
-0.22515428066253662
0.061930324882268906
-0.3960627317428589
-0.2660425007343292
0.9493640661239624
-0.5732955932617188
-0.6224289536476135
1.0613198280334473
0.35287678241729736
-0.018204567953944206
