-1.1894745826721191
3.9747655391693115
-0.304802268743515
11.269173622131348
-2.352302312850952
11.349945068359375
1.1056662797927856
2.2723069190979004
1.0701079368591309
1.5844725370407104
-1.5448566675186157
1.093146800994873
-0.0025854497216641903
0.48333051800727844
-0.2345430999994278
-0.4472849667072296
-0.33182135224342346
0.064336858689785
0.185139000415802
6.113819599151611
-4.450653553009033
2.6808083057403564
-1.3340487480163574
4.363928318023682
0.042203761637210846
0.033385466784238815
-0.23445183038711548
-0.35872122645378113
0.1914629340171814
-0.23657609522342682
-0.7137393355369568
-2.921194553375244
0.5042374730110168
2.1084442138671875
9.14133071899414
1.1803781986236572
5.471827030181885
0.20021840929985046
0.38489988446235657
1.432645320892334
0.19782525300979614
6.470913887023926
5.14185905456543
0.08857189118862152
-0.14683647453784943
0.7115904092788696
-0.07879936695098877
3.855604648590088
-0.40648651123046875
0.1467534601688385
-0.048095643520355225
-0.21673095226287842
0.3488665819168091
0.12287847697734833
5.732883930206299
0.42672207951545715
0.26868385076522827
1.6993621587753296
0.3930050730705261
0.9634626507759094
-0.39502009749412537
-0.12206920236349106
0.30526071786880493
-0.7238317728042603
-0.26035887002944946
-0.7177122831344604
8.503718376159668
1.2553342580795288
0.09011954069137573
1.6276118755340576
-0.2868078947067261
6.369839668273926
0.06247193366289139
-0.4175092875957489
-0.12351838499307632
-0.5758729577064514
0.39878904819488525
-0.3511505722999573
-0.1252555549144745
-0.09457674622535706
0.03358098864555359
-0.1592172235250473
-0.30270564556121826
-0.3482351005077362
3.1614644527435303
0.5658266544342041
0.012176226824522018
1.0540239810943604
-0.40319693088531494
2.2962324619293213
-0.28032565116882324
-0.7912706732749939
-0.14309608936309814
-2.503206253051758
-0.4428367614746094
0.0002753488952293992
-0.2558087408542633
-0.5594368577003479
0.10272037982940674
-0.5790410041809082
-0.3844801187515259
0.0365130677819252
-0.12515480816364288
-0.07435522228479385
-0.06695881485939026
-0.8680300116539001
-0.21853891015052795
-0.2766326069831848
0.15231899917125702
-0.0594811737537384
-0.8485619425773621
-0.1688290685415268
-0.37818536162376404
-0.6198623180389404
