0.10297911614179611
0.14833885431289673
-0.023633737117052078
-0.41407331824302673
0.18753884732723236
-0.5201175808906555
-1.571852445602417
-6.1312408447265625
-6.737865924835205
-0.2774595618247986
1.8070740699768066
2.8282289505004883
0.07202641665935516
0.7331714034080505
0.18957115709781647
-0.9636415839195251
-0.4113008975982666
-0.8542594909667969
0.20410573482513428
0.1656903326511383
-0.09380734711885452
-0.06854510307312012
0.13016317784786224
-0.10657691955566406
0.2389528900384903
5.698513031005859
2.1840953826904297
-3.599609851837158
1.4285509586334229
4.398674964904785
-0.26081979274749756
-0.09531209617853165
0.06757868081331253
-0.7495758533477783
-0.5198388695716858
-0.46281835436820984
-0.055757325142621994
5.107710361480713
-0.38533657789230347
-0.28162166476249695
-0.05160660669207573
-0.25347843766212463
0.13121438026428223
-0.20718272030353546
-0.36957016587257385
0.3968806266784668
-0.40196454524993896
0.08657956123352051
0.310957670211792
-0.09997054934501648
-0.008246705867350101
-0.049278002232313156
-0.4146985709667206
-0.11611799150705338
-0.08974969387054443
-4.015468597412109
0.19946786761283875
-0.018741047009825706
3.5719542503356934
-0.8393710851669312
-0.163043811917305
-0.24065063893795013
-0.25487372279167175
-0.30418357253074646
-0.1283251792192459
-0.25700274109840393
0.3396032452583313
4.095782279968262
-0.4188562035560608
0.0922454223036766
0.28520330786705017
-0.8477367162704468
-1.290732502937317
0.4847327172756195
0.49414342641830444
-3.585801601409912
0.10364191979169846
-2.933072328567505
-1.9706854820251465
0.5431109070777893
-0.16276448965072632
-0.8299017548561096
-0.0785909965634346
0.33575013279914856
-0.7503617405891418
-0.048438072204589844
-0.18999981880187988
-0.8684053421020508
-0.09758155792951584
-0.26766639947891235
-0.329495370388031
-0.2851332724094391
-0.05749650299549103
-0.20060639083385468
-0.5486927628517151
-0.11282993853092194
-0.9024882316589355
0.2545313239097595
0.29084908962249756
-0.06596076488494873
0.16666662693023682
-2.8953731060028076
-0.5531877279281616
-0.0011777281761169434
0.3494567275047302
-0.3001888394355774
-0.3376002013683319
-0.8879745602607727
1.057508111000061
-0.8859447836875916
-0.591869592666626
-0.15136666595935822
0.7560872435569763
-0.6241357326507568