-0.4463619589805603
0.3498554527759552
-1.0428543090820312
1.8985066413879395
1.015712022781372
1.599273681640625
-1.3034666776657104
0.5628291964530945
-0.8427353501319885
1.348534107208252
1.3306498527526855
0.8383638262748718
0.13023725152015686
-0.10845980793237686
-0.04248339310288429
-0.44917237758636475
0.008363459259271622
0.011720728129148483
-0.1515563428401947
-0.2097701132297516
0.012383317574858665
-0.197490856051445
0.17936201393604279
-0.17519013583660126
-0.06259408593177795
0.2699838876724243
-0.19467268884181976
-0.3944469392299652
-0.2955819368362427
-0.27652817964553833
-0.7109403014183044
0.9228692054748535
-0.8368505835533142
2.0585386753082275
1.3766881227493286
1.7350863218307495
-0.28484562039375305
-0.29158589243888855
-0.16247932612895966
0.30053627490997314
-0.03859156370162964
0.09508700668811798
1.1270197629928589
1.166812777519226
0.0357496440410614
-0.3343690037727356
-0.4031987190246582
1.0446763038635254
1.7553737163543701
1.6883232593536377
0.027920633554458618
-0.1121668890118599
0.3123677372932434
1.7371635437011719
-0.39060530066490173
0.20514464378356934
-0.2763739824295044
0.109860360622406
-0.3313750922679901
0.1258116364479065
-0.08906186372041702
0.12006404250860214
0.12135390192270279
-0.4315059185028076
0.0710647702217102
-0.36247897148132324
-0.341574490070343
0.3758280873298645
0.26779139041900635
0.21261340379714966
-0.20050585269927979
-0.26516246795654297
0.4043821692466736
-0.05221018195152283
-0.5373685359954834
0.17398184537887573
0.03650384023785591
0.3879801034927368
-0.28252628445625305
1.1036509275436401
1.2170214653015137
-0.40016019344329834
-0.06890690326690674
0.28476428985595703
-0.10022926330566406
-0.056220948696136475
-0.13829170167446136
0.09789139032363892
-0.43247613310813904
0.11989563703536987
-0.3493313193321228
0.01464855670928955
-0.2215605080127716
-0.2498152107000351
0.009696751832962036
-0.0770154595375061
0.07878243923187256
1.622969150543213
1.6551107168197632
0.16715991497039795
0.39082515239715576
-0.07265689969062805
0.03054460883140564
0.25213366746902466
-0.3690165877342224
-0.2297009974718094
-0.40358269214630127
0.37308555841445923
0.026701411232352257
-1.1303850412368774
0.03543407469987869
-0.14682874083518982
-1.6959974765777588
-0.08299610018730164
