-0.11524175107479095
-0.10002614557743073
-0.07623443752527237
-0.3261162340641022
-0.2775195837020874
-0.3125804364681244
-0.04124278202652931
0.02848394401371479
-0.12251430004835129
0.13367600739002228
-1.440008521080017
0.6938645839691162
0.4098527729511261
-1.0603376626968384
2.4747393131256104
-0.6675893664360046
0.08927199244499207
-0.49988505244255066
0.0739232525229454
-0.2467348724603653
0.11223243921995163
-0.3347296118736267
-0.47843602299690247
-0.3912484347820282
-0.05341178551316261
0.08774741739034653
0.1224130392074585
0.26233339309692383
0.30344387888908386
-0.040997713804244995
-0.37172359228134155
-0.9556852579116821
-0.8772008419036865
-0.8941522240638733
0.04257327318191528
0.07084029167890549
0.8268532156944275
-0.5549825429916382
-0.15338797867298126
-3.247511148452759
-2.4831085205078125
-2.6607890129089355
-0.10712242871522903
-0.5013381838798523
-0.5241240859031677
0.1751319169998169
-0.022071223706007004
-0.8741193413734436
-4.639039993286133
-5.503381252288818
-3.5921871662139893
-0.08320741355419159
-0.14692433178424835
-0.9196016788482666
-0.3504824638366699
0.9248455762863159
0.4016258716583252
-1.3127188682556152
-1.0250028371810913
-1.8750910758972168
-0.17991948127746582
-0.4599979519844055
0.11651698499917984
0.15332384407520294
-0.3879891037940979
0.3286030888557434
9.136502265930176
9.15574836730957
9.26098918914795
0.4352622330188751
-0.005810644011944532
-0.030557338148355484
-3.727607011795044
-0.32657843828201294
-0.22692397236824036
8.922332763671875
3.8028225898742676
4.852145195007324
-0.09511247277259827
0.19878540933132172
0.00997882429510355
0.11452626436948776
0.3054285943508148
0.3075058162212372
0.4061683118343353
-0.00911023560911417
-0.0807899534702301
0.17060086131095886
5.013768196105957
0.5765339136123657
-0.007318570744246244
0.18951444327831268
0.15781128406524658
-0.40074649453163147
-0.14901338517665863
-0.05468840152025223
-0.3963189423084259
5.070768356323242
0.662838339805603
-0.08615187555551529
-0.04394874721765518
-0.29352033138275146
-0.2827399969100952
-0.4022381901741028
-0.2532866895198822
-0.3454216718673706
-0.12938857078552246
-0.10640683770179749
0.00914404820650816
-0.2230577915906906
0.23840036988258362
1.5598546266555786
0.1774507611989975
0.5434865951538086
0.06662620604038239
-1.4571974277496338
-0.6024629473686218
0.10568277537822723
-0.4776496887207031
-0.2876376807689667
-0.33190709352493286
0.2138141542673111
-0.13693606853485107
-0.000675099203363061
-0.48763367533683777
0.024592170491814613
0.1849968135356903
-0.8685025572776794
-0.2808963656425476
-0.26100343465805054
-1.1754341125488281
0.013815879821777344
-0.8801416754722595
-0.1873706579208374
-0.5575143098831177
0.017139285802841187
-0.027174711227416992
-0.1320469081401825
0.18382510542869568
-0.14261481165885925
-0.17680291831493378
0.14362594485282898
-0.1168496310710907
-0.2986401915550232
-0.18891990184783936
-1.0136041641235352
0.19974009692668915
1.9079993963241577
-0.23254068195819855
0.7822274565696716
0.12282413244247437
-1.8372232913970947
-0.45891088247299194
-0.4362385869026184
-0.17119230329990387
-0.31684109568595886
-0.38148388266563416
-0.2144717276096344
-0.4409376382827759
-0.1598483920097351
-0.17114362120628357
-0.4698913097381592
-0.6380128264427185
-0.17345306277275085
0.2947551906108856
-0.4439467787742615
0.298999160528183
-0.1693551242351532
0.2890339195728302
-0.7416501045227051
-0.041430383920669556
-0.2684367895126343
0.06928082555532455
0.19250676035881042
-0.26190096139907837
0.10355675220489502
-0.22313623130321503
0.31512120366096497
-0.3564132750034332
-0.3324708342552185
-0.4381454885005951
0.01998463086783886
-0.13854621350765228
-0.1931997686624527
0.3415318429470062
-0.1972910612821579
0.020621061325073242
-0.14505472779273987
0.06827086210250854
-0.21912653744220734
-0.17876394093036652
-0.21929216384887695
-0.19938227534294128
-0.13325297832489014
-0.24527089297771454
0.09430453181266785
0.18843376636505127
-0.07053986191749573
-0.25952622294425964
-0.005952984094619751
0.3142094314098358
-0.7114298939704895
-0.08376884460449219
0.06356525421142578
-0.29896223545074463
-0.22425298392772675
0.20731386542320251
1.2646349668502808
1.2803748846054077
0.11165276914834976
0.1871093362569809
-0.07802921533584595
0.093770831823349
-0.32552027702331543
-0.9604606032371521
0.5564193725585938
-0.3200618326663971
-0.16045288741588593
-0.23264551162719727
-0.2288213074207306
-0.07475057244300842
0.12237992882728577
0.08936312794685364
0.023357730358839035
-0.22408920526504517
-0.05782795697450638
-0.3242896795272827
0.06979727745056152
-0.20192626118659973
-0.22706131637096405
-0.33178287744522095
-0.026267021894454956
-0.16547314822673798
0.2768919765949249
-0.7441605925559998
-0.47745710611343384
0.09459903836250305
-0.586068332195282
0.09229488670825958
-0.030090779066085815
-0.313849538564682
-0.719546914100647
-0.2752634286880493
0.48832833766937256
0.14230038225650787
-0.00699428329244256
-0.08405130356550217
0.6177234053611755
-0.8615514039993286
-0.023993317037820816
-0.0033656160812824965
0.42936059832572937
