-0.5206776261329651
-3.02213978767395
-1.3099143505096436
5.6999592781066895
7.821129322052002
6.543868064880371
-0.723190188407898
-2.9442460536956787
-0.979133665561676
5.744983673095703
8.391258239746094
6.470315933227539
0.01425794418901205
0.016788462176918983
0.013904811814427376
-0.22126321494579315
-0.5141919851303101
-0.39187830686569214
0.200815349817276
-0.16097086668014526
0.12252694368362427
-0.1792811155319214
-0.26496484875679016
-0.07506079226732254
0.175320565700531
-0.04078677296638489
-0.07531356811523438
-0.24253574013710022
-0.4450588822364807
-0.24597015976905823
-0.02473122999072075
-0.12263762950897217
-0.10052692890167236
-0.48374268412590027
-0.3075393736362457
-0.3638751804828644
3.1714086532592773
2.4719367027282715
0.08237536996603012
0.11176997423171997
0.12158530950546265
0.3075626492500305
-0.31236016750335693
-0.09951861202716827
-0.009453952312469482
-0.0416380874812603
0.023437442258000374
-0.29431119561195374
-0.31766068935394287
0.1601364016532898
0.10158389806747437
0.1623629331588745
-0.2887302041053772
0.142706036567688
2.4387710094451904
2.6272406578063965
0.17211708426475525
-0.3660377860069275
-0.0402812659740448
-0.12561509013175964
0.005125313997268677
-0.11173945665359497
-0.3361292779445648
0.017296642065048218
-0.24167560040950775
-0.20301049947738647
4.076318740844727
2.6853129863739014
0.08880296349525452
0.2235795110464096
-0.3751751184463501
-0.23704883456230164
1.025830864906311
-0.01745562069118023
0.1022569090127945
2.863903284072876
0.3425140380859375
1.5048906803131104
-0.4528800845146179
0.12828952074050903
0.11595511436462402
-0.16702720522880554
-0.14037972688674927
-0.10176508873701096
1.2589365243911743
-0.14054739475250244
0.1458471417427063
3.500885486602783
0.33724838495254517
2.541339159011841
-0.2183203101158142
-0.1827273666858673
0.43366554379463196
-0.1478826254606247
-0.09696713089942932
0.06955277174711227
-1.163224697113037
0.3655779957771301
0.09110903739929199
-2.63970947265625
-0.2744161784648895
1.0831331014633179
-0.31770041584968567
0.043344803154468536
0.05136581137776375
0.0931314080953598
-0.2612556517124176
-0.7076153755187988
-1.6272683143615723
0.11439067125320435
-1.4500391483306885
-0.043650366365909576
0.8415653109550476
0.062214165925979614
